{
    "layers": [
        {
            "neurons": [
                {
                    "weights": [
                        0.03861704159749096,
                        -0.01848308557711428,
                        -0.01010975332258899,
                        0.014028760757540618,
                        -0.024467297198475582,
                        -0.005480323866709438,
                        0.001969239675430935,
                        0.020954819113613944,
                        -0.07257255271832594,
                        -0.0024147070793765105,
                        -0.09172876437598758,
                        -0.057338349515640805,
                        -0.060400862322268725,
                        0.13430660620555307,
                        -0.018967215792001738,
                        0.02943393301008746,
                        -0.05254759285961416,
                        0.0018297788553155387,
                        -0.015384300391334456,
                        0.00848325898246651,
                        0.06471177427579619,
                        -0.022634710760777277,
                        0.012697476171574493,
                        -0.028864305962128613,
                        -0.07022530773581971,
                        -0.0692722345916885,
                        -0.004813713171720672,
                        0.13344457102901844,
                        0.03162562411575146,
                        0.02922619259170289,
                        -0.0190649316352563,
                        -0.030734743381764122,
                        -0.0029660945951570173,
                        0.11972037799026845,
                        0.05190469801325335,
                        0.002033557525214498,
                        0.008721481031308206,
                        0.02501594061842002,
                        -0.008229081800913108,
                        0.018122874863903408,
                        0.00934768091610175,
                        -0.01983315136871439,
                        0.08381315318180109,
                        0.24073842598339507,
                        -0.31883643506184467,
                        -0.06828276074676454,
                        0.07446670452664379,
                        -0.0584442168796782,
                        0.08632891509103426,
                        0.10648589600826719,
                        0.05779534886314146,
                        -0.008178749887966288,
                        0.04031423513148472,
                        0.0004480091370402803,
                        -0.0057224089673756605,
                        -0.07983099801408373,
                        -0.022522365604592174,
                        0.056038055363546446,
                        0.09724377635122662,
                        0.04487145323444524,
                        0.0016833209987415349,
                        -0.10026616079460919,
                        -0.04667370205752654,
                        0.002252146093062317,
                        -0.002766062368149345,
                        0.05954833746221124,
                        -0.48818808070648767,
                        -0.40632121171160784,
                        -0.19543931970371167,
                        -0.36669116804734103,
                        -0.2644815884774766,
                        0.18298416561222272,
                        -0.6445464117877334,
                        -0.4021440853043092,
                        -0.7194864552416764,
                        0.08344456627367575,
                        -0.04977926186672532,
                        0.09627460579131791,
                        0.026288284650427048,
                        -0.07164699588976965,
                        -0.007995268030502739,
                        0.04017737702464404,
                        -0.03102470508432714,
                        0.012334800948768132,
                        -0.009352975355520581,
                        -0.057294372479967874,
                        0.009463905559855912,
                        0.04807932095562178,
                        0.06620688645697345,
                        0.013373918829881048,
                        -0.014621470845396955,
                        0.005371221098961693,
                        -0.04465608453085494,
                        0.21216996588696174,
                        0.27855318590717204,
                        -0.7069854949384916,
                        -0.656910536909279,
                        0.3013813741070885,
                        -0.2842916969232036,
                        0.04475648286183262,
                        -0.35219281825557913,
                        0.09550995437038626,
                        0.11990457877454251,
                        0.30128013536454973,
                        0.023609551860532745,
                        0.3478128039661189,
                        -0.17462841176349733,
                        -0.16420911134535923,
                        -0.02972073043655147,
                        0.045948178553660506,
                        -0.07593967562230836,
                        -0.024264434077941672,
                        0.026788587762025983,
                        0.022328187348504724,
                        -0.080727783971655,
                        0.0224039068178047,
                        0.003996792122128008,
                        0.01355972752611616,
                        0.06098056401751052,
                        -0.12968731935692776,
                        0.40325778598703166,
                        -0.13179230843679862,
                        -0.41508642318945854,
                        -0.035897935066038916,
                        -0.025696941435272198,
                        -0.14027252956543615,
                        -0.12829037265035628,
                        -0.029038329876799822,
                        -0.06122738975547853,
                        -0.06560273741742553,
                        -0.01299129042970624,
                        -0.02722243053144524,
                        0.015111171380447553,
                        -0.13655866811543588,
                        -0.11425334673935755,
                        0.13300388487366896,
                        -0.27649849798621007,
                        -0.0566053886048684,
                        -0.025262807040859113,
                        0.06744193867425628,
                        -0.010859072538777418,
                        -0.08017457125768462,
                        0.019928155468984562,
                        -0.0484539715006336,
                        -0.09268539469950175,
                        0.3770974986661616,
                        0.24229030743431576,
                        -0.023304842029729364,
                        -0.31280086286897807,
                        -0.3927837296694723,
                        -0.03571920393660088,
                        -0.34479602090783534,
                        -0.14263734956086868,
                        -0.16459314586563917,
                        -0.11922882120329485,
                        -0.2424223700026172,
                        -0.12173788772062245,
                        -0.07528868089991235,
                        -0.09881705941851443,
                        -0.050673972577544045,
                        -0.08017963876372892,
                        0.012888981988549032,
                        0.21193325137797103,
                        0.13991676180640428,
                        0.347676102248858,
                        -0.18511521393741273,
                        -0.0007959193376976751,
                        -0.009492023782626698,
                        0.004260480923448995,
                        -0.06933143518514379,
                        0.017239658507003736,
                        0.26868460862032545,
                        0.028032109368012554,
                        -0.020603093006558815,
                        -0.3338844679701467,
                        -0.14943266716855905,
                        -0.00858672584456336,
                        -0.2699328612787962,
                        -0.11368926837018936,
                        0.022764081499755284,
                        -0.12845444699199435,
                        -0.19674764355849492,
                        -0.09260623593524059,
                        -0.10917014268296052,
                        -0.15701980544369756,
                        -0.036495987507024166,
                        -0.07763633336845881,
                        0.0686387496964385,
                        0.08810816153712443,
                        0.13520149681550925,
                        0.12053059829534975,
                        0.12254857214636522,
                        0.046776701801629114,
                        -0.01888253756843854,
                        -0.03564591895154772,
                        -0.05259737945603615,
                        0.024410040266374236,
                        -0.051318646983332945,
                        -0.2281382906601964,
                        -0.13990807223053547,
                        0.23522631230510524,
                        -0.2074242923840934,
                        -0.23702018169060105,
                        -0.4011779734946163,
                        -0.019508788141722667,
                        0.0698675084454857,
                        0.11029213258664,
                        -0.08565099014298029,
                        -0.044243770130287206,
                        0.08360261935991987,
                        -0.13336569583804822,
                        -0.07836364600962165,
                        -0.0804138436326334,
                        0.00914383111640713,
                        0.031397264509925735,
                        0.03125067790945688,
                        0.0018981745149667252,
                        -0.13950920598891475,
                        0.07668622171714409,
                        0.2847348962953345,
                        -0.5086179488819405,
                        -0.3461131764568502,
                        0.08847962354977125,
                        -0.01885886785302022,
                        0.00956483095830621,
                        0.024423756980002095,
                        -0.1727890852896632,
                        -0.05465800912782816,
                        -0.07891848618918564,
                        -0.386099304413971,
                        -0.3247944760497228,
                        -0.2307087449537383,
                        -0.6472548191612196,
                        0.1821259780892181,
                        0.10633724704109418,
                        -0.03979650947266591,
                        0.053425826274680364,
                        -0.10285027384634657,
                        0.04956454389409007,
                        0.05920370679611382,
                        -0.004077548048768496,
                        -0.03034343273623364,
                        -0.06134159023066027,
                        0.038149039073311325,
                        0.07024295325056325,
                        0.2754429364958792,
                        0.1383578346945754,
                        0.1891962434177889,
                        0.11783391430113618,
                        0.08322892041223968,
                        0.00833401929025994,
                        -0.17301519396804235,
                        0.01949710060447942,
                        0.013666293149835623,
                        0.07487088965996726,
                        -0.15549722005050115,
                        -0.10312152757386038,
                        0.10424032946384684,
                        0.06007037474738325,
                        0.1167136020596273,
                        0.077490059591899,
                        -0.4380854305824225,
                        0.07217041704831102,
                        -0.0567613275863041,
                        0.08836265106998642,
                        -0.07582414174713548,
                        0.10177038096450111,
                        0.058592739193553844,
                        0.07304352154109363,
                        0.1100397632603889,
                        0.026388291381310394,
                        -0.08076168091575509,
                        -0.13423989456943575,
                        0.11125744511655464,
                        0.29311923765732906,
                        -0.25035607803950566,
                        0.004315563014022476,
                        0.09211985265188206,
                        0.09689517548676539,
                        0.009477879920564211,
                        0.0216375705817078,
                        0.07028741263942496,
                        -0.04959563948437322,
                        -0.0025041553436440426,
                        0.17129095263638083,
                        0.2092207215878054,
                        -0.5785988107823259,
                        -0.7503753712087727,
                        0.38422588047470607,
                        -0.19320973232618796,
                        0.010708353349628927,
                        0.3260710746224441,
                        -0.06775477100814335,
                        0.18664383229736806,
                        0.0840783479194836,
                        -0.017373500279533386,
                        0.12128475688418922,
                        0.01577253201304373,
                        0.035759598005852294,
                        0.052867249440483044,
                        0.02537217173108651,
                        -0.34811213054274537,
                        0.01078141739672327,
                        -0.2192635289511895,
                        -0.3574380325277777,
                        -0.032740543395865414,
                        -0.048362435757787404,
                        0.04753836947647008,
                        0.005475075593217138,
                        0.07911892260526916,
                        -0.011017338235045417,
                        0.0061357973243653715,
                        0.12829569963186843,
                        -0.17027788856795653,
                        -0.27539434202846724,
                        -0.41766033196366675,
                        -0.45553111266902035,
                        0.30892197779362146,
                        -0.04702075851563121,
                        -0.18402672037012266,
                        0.09195599908308187,
                        0.10534192484991307,
                        0.09014850898459857,
                        0.10076702944392725,
                        0.07510585594685817,
                        -0.03811244802283276,
                        0.09136043790917302,
                        0.009530492496430329,
                        -0.46742722595014513,
                        0.5178718061864372,
                        -0.15087291983698095,
                        0.49331492881939315,
                        -0.1212683397696157,
                        0.02128287985931854,
                        0.07988661512957623,
                        -0.033608652840989045,
                        0.0795865531157269,
                        0.008563070371562086,
                        -0.02011680417202954,
                        -0.09578036149386283,
                        0.33696196756257196,
                        -0.1826530876185275,
                        0.13299431053323474,
                        -0.28804689799257766,
                        0.17851042194266434,
                        -0.05082557560811465,
                        -0.2332579519918459,
                        0.020173172884389627,
                        0.3354843715904701,
                        0.2579526059258362,
                        0.20178802111451896,
                        -0.03858546823197293,
                        -0.016864513190931733,
                        0.04771378599603934,
                        0.14159530668114126,
                        -0.44677973298603596,
                        -0.0892793529900478,
                        0.2754826235697908,
                        -0.05997943438658946,
                        0.1428958564363429,
                        -0.030616014330206335,
                        -0.33241210580627073,
                        -0.09504669922223873,
                        0.05512489613201275,
                        -0.05090768532172733,
                        0.024078253090854214,
                        -0.08166186071070962,
                        -0.07388646584891,
                        0.455254990002035,
                        0.09866717060371184,
                        0.2943777690970352,
                        0.04693233606689627,
                        -0.09058881076558431,
                        0.12426677578258925,
                        -0.151310720868036,
                        0.1961954618129606,
                        0.30697079567097746,
                        0.12456188080050477,
                        0.490975173541046,
                        0.011655190870509577,
                        -0.00859748097485798,
                        -0.09354311005352095,
                        -0.16443236138388223,
                        0.3199404182996033,
                        -0.22464815713100506,
                        0.40681877355762436,
                        -0.5134580259447197,
                        -0.16076270136053436,
                        -0.4635147195366848,
                        -0.3783647019865318,
                        -0.36158237603921695,
                        0.019278981772149668,
                        -0.0351498181810062,
                        0.06160071356392129,
                        0.022143187531649625,
                        -0.031049252655452806,
                        0.06675705099136778,
                        0.11038790509569785,
                        -0.4417147397763928,
                        -0.4629495504317641,
                        0.3735744458721772,
                        -0.04340819633198731,
                        -0.21196160761536292,
                        0.05795585283596083,
                        0.10982870429416743,
                        0.1317149181770199,
                        0.263257915690966,
                        0.029102863617992417,
                        0.009418308921590285,
                        0.0854915929702754,
                        -0.4280587978344721,
                        -0.04148826818281872,
                        -0.3982213257395909,
                        -0.15405578229277742,
                        -0.22822503978474004,
                        -0.1523575896946341,
                        -0.2897627438902661,
                        -0.2982311957440794,
                        -0.08763440744405503,
                        -0.018240500664272585,
                        0.05389775568376621,
                        -0.03932940786407078,
                        0.05634709007337495,
                        -0.07276147291349809,
                        -0.16703124926393034,
                        -0.03920879119446869,
                        -0.19482918037453137,
                        -0.1540493712814678,
                        0.16084126589297262,
                        0.1164853561296622,
                        -0.11863249109229272,
                        0.2053238649498365,
                        0.13604831412375543,
                        0.0724960010013907,
                        0.284491369759058,
                        0.06467881942820745,
                        0.03932242258071968,
                        -0.24687089556723255,
                        0.23880863444092906,
                        -0.6209637384231634,
                        -0.40570230798838697,
                        0.21261902460081475,
                        -0.2931170138085176,
                        -0.03201137775579601,
                        -0.6517171281667863,
                        -0.2863039561548741,
                        -0.12954708711704271,
                        -0.04116643489999191,
                        -0.020674798179607337,
                        -0.06259322917090905,
                        -0.03908589528292277,
                        -0.19139913372627806,
                        -0.31655509316131264,
                        0.09498920257222178,
                        0.04034909263365789,
                        -0.6453069924345282,
                        -0.519199108327121,
                        -0.18766986988947407,
                        -0.17619766275378843,
                        0.03546854766531977,
                        0.005465829207058994,
                        0.0193095205818855,
                        0.16536866111942175,
                        -0.03182815262020462,
                        0.12773808709460588,
                        -0.15949656489544684,
                        0.3122273299163058,
                        -0.5246099101849206,
                        -0.14568870054581862,
                        -0.3408500651601479,
                        -0.4384954107868146,
                        -0.37327594963110156,
                        -0.0125160946116891,
                        -0.3031472040384519,
                        -0.18819256877232246,
                        -0.09741419472624495,
                        0.010577006986333315,
                        -0.033569707711490024,
                        -0.028588718355459564,
                        -0.1674613952838371,
                        -0.13519516266541604,
                        -0.10024007583329478,
                        -0.08590276364635453,
                        -0.14725973448212576,
                        -0.2923099042495944,
                        -0.07784986065895458,
                        -0.12166098135944697,
                        -0.0963732531383256,
                        -0.05740078367700051,
                        0.044985849186535386,
                        0.13847770176501217,
                        0.053273586492145246,
                        -0.022211891210132517,
                        0.2115925634998921,
                        -0.3927254335557606,
                        -0.3635565550226619,
                        -0.25033303585238675,
                        -0.1459476096849938,
                        -0.38262699963002705,
                        -0.23566273007225857,
                        -0.14523184810237008,
                        -0.24773165713222633,
                        0.13153207438532497,
                        -0.060155270229504794,
                        0.05139192523434779,
                        -0.020051057524955233,
                        -0.027147136383828343,
                        -0.08282674947429389,
                        -0.2015846502122408,
                        -0.6306842551573988,
                        -0.24436754591225646,
                        -0.61609567987023,
                        -0.29474100282718924,
                        -0.16337974894761953,
                        -0.2393095730192213,
                        -0.0803042303261979,
                        -0.047021977244356444,
                        0.004577144478505937,
                        0.07876169736295072,
                        0.015093563377847915,
                        0.009965048553521557,
                        0.06376661139509622,
                        -0.018204371662182757,
                        -0.004489488263034915,
                        -0.5568326287509155,
                        0.010799838063458505,
                        -0.5710513981260018,
                        -0.01843071307031628,
                        -0.26740486706570443,
                        -0.0606889753450393,
                        -0.02643664742308703,
                        -0.2501662104307815,
                        -0.013737569559590898,
                        -0.016296932418608148,
                        -0.009002670544232837,
                        -0.12472439904301975,
                        -0.6310458033769017,
                        -0.4832396704178752,
                        0.2516175964214659,
                        -0.12719824706727878,
                        -0.2897655185482246,
                        -0.27821955939153425,
                        -0.13396525420335484,
                        -0.07836779418468305,
                        -0.029390308321026803,
                        0.0667099903339397,
                        -0.020717011227828458,
                        -0.06793392844270287,
                        0.07133729692551083,
                        -0.1349102887467161,
                        0.14863211700970094,
                        -0.3939178345563608,
                        0.43296875821457503,
                        -0.3192052106495738,
                        -0.660181081241484,
                        -0.33966410742404834,
                        0.2520253228175037,
                        0.1026370621664341,
                        -0.1634272989547851,
                        -0.03834080414477565,
                        -0.0418693918306675,
                        -0.0209670056311814,
                        -0.006867554824086937,
                        -0.17616532310658312,
                        0.16152928329693728,
                        -0.24977197714989624,
                        0.1366611282510114,
                        0.09251720618854388,
                        0.12875974587727848,
                        0.05796123946417659,
                        -0.007087242004683377,
                        -0.0797498021803204,
                        -0.030982743173905456,
                        -0.07640079915006094,
                        0.01656039165614652,
                        -0.03544597386693958,
                        -0.07464223310728345,
                        0.05709860592073467,
                        -0.2413369049791403,
                        0.00782897452316795,
                        -0.15058922907216363,
                        -0.45427928207173796,
                        -0.5508716397756194,
                        0.28180391719971215,
                        -0.00043340341485164366,
                        0.39957267781218975,
                        0.1127637184869242,
                        0.08420352626010065,
                        0.015117269772158888,
                        0.041584533429333534,
                        -0.13743816941539821,
                        0.1710781206503228,
                        0.13836325709654335,
                        -0.0026300733335438923,
                        0.06182629561767035,
                        0.0010230853624424723,
                        -0.033839366419609565,
                        -0.04213409214246402,
                        -0.05878897605515076,
                        -0.034414007958336594,
                        -0.01061155246660796,
                        -0.03722209980315292,
                        0.01878540990490144,
                        -0.060319820547953776,
                        0.02470552313867076,
                        -0.2475571229029777,
                        0.0078093275192073945,
                        -0.13473862735878256,
                        0.0263299411125209,
                        0.03937568418622595,
                        -0.4917596213127297,
                        -0.08438820872767475,
                        0.562739315601554,
                        0.05348841750274124,
                        0.0031405241152627616,
                        -0.08163366257092611,
                        0.06171884970843491,
                        0.014070863666113527,
                        -0.05961928654809074,
                        -0.377553511756895,
                        -0.1810197856778908,
                        -0.18686015260964076,
                        0.09500083198024256,
                        0.17873036911669052,
                        0.14586353967721927,
                        0.14118665420165497,
                        0.012850534047209072,
                        -0.09788705643450721,
                        -0.03950245203333084,
                        -0.0410388625729353,
                        0.028152810014028234,
                        -0.15429879825056264,
                        -0.10274716345613252,
                        0.14080611828128403,
                        0.19232438022412957,
                        -0.2608864732466676,
                        -0.3726569690856221,
                        -0.0008545097438403846,
                        -0.11668224737533676,
                        0.2944976425526894,
                        0.040765126988183256,
                        -0.026595250751130978,
                        -0.015553893515167717,
                        0.03812765908287156,
                        0.00015595000130528644,
                        0.023156244141426165,
                        0.011048827678917164,
                        -0.484772155499238,
                        -0.1959302172715447,
                        0.3342699276118905,
                        0.07919194687570759,
                        -0.12367281337763013,
                        -0.020555943789112407,
                        -0.02177236932276342,
                        -0.009203018904683008,
                        0.1521294973821009,
                        0.06232875597836416,
                        -0.05804470638937948,
                        -0.11703477286866118,
                        -0.08543835789441621,
                        -0.04560140581447653,
                        0.0362824063113819,
                        -0.18030237125372792,
                        0.11771524220493222,
                        0.04610677075548751,
                        -0.47247483823966907,
                        -0.06206378514630135,
                        -0.25377553473251724,
                        -0.08966999968467584,
                        -0.11381959500058376,
                        0.08903814489419351,
                        0.018678745195976378,
                        -0.019997353055004944,
                        -0.007242934863003654,
                        0.004538284156444759,
                        0.03333185449371613,
                        -0.11244391139389201,
                        -0.004873652660778933,
                        -0.23650300142397992,
                        0.030525597559443684,
                        -0.0330053700123143,
                        0.003684892616626143,
                        -0.079312920265063,
                        -0.13898489769329442,
                        -0.07471788379842464,
                        -0.15293932105479005,
                        -0.1851516207579763,
                        -0.07205367186081622,
                        -0.1600173209731521,
                        -0.09986383985482833,
                        -0.08939136472168142,
                        -0.0863236959347648,
                        -0.04272797308159124,
                        0.09655505564610675,
                        -0.17513583216310136,
                        0.11070881501842689,
                        -0.11475671029412031,
                        -0.13549075797943064,
                        0.09225082598543635,
                        0.021702896183412552,
                        0.0632034764041429,
                        0.01207372074566488,
                        0.11630107425083977,
                        -0.03727384882337336,
                        0.05416393767429192,
                        0.01544286631836483,
                        -0.02093971593685138,
                        0.037298052539991064,
                        0.1067520276925789,
                        -0.1485025072914284,
                        -0.3268388024705739,
                        -0.16363385049377385,
                        0.03625074201772621,
                        -0.12088646954808119,
                        -0.16426498623694105,
                        0.017803201779841602,
                        -0.41127060259280523,
                        -0.34528924395759214,
                        -0.07254181280767155,
                        -0.13244205601128592,
                        -0.04660988089281812,
                        0.03733843585605622,
                        0.04410657750368728,
                        -0.05840881088682365,
                        0.0076772415966175995,
                        0.07858284972356307,
                        -0.004033458003913565,
                        -0.0411544604457189,
                        0.017414168052089347,
                        0.10057174003347247,
                        -0.05180869529079598,
                        -0.046672660777139136,
                        -0.045626309287291195,
                        0.01685126252371436,
                        -0.08584959917371969,
                        0.0033635080360227146,
                        -0.03265813006404748,
                        0.09314724719456392,
                        0.03775580476067285,
                        -0.0407997330022885,
                        0.11584410802239346,
                        -0.047376299871489086,
                        0.01563405847294103,
                        0.24231999601970475,
                        0.060119649505047675,
                        0.036541386628623156,
                        -0.06974860524510454,
                        -0.04391951427695329,
                        0.050644525222227704,
                        -0.015047458371432162,
                        0.015766605412669627,
                        0.05999765249123524,
                        -0.07018983600474235,
                        -0.04843641122824577,
                        0.015353514339612519,
                        0.0628280120597242,
                        -0.038365382733600864,
                        -0.004718779935233265,
                        -0.14386667929134708,
                        -0.08209065121586166,
                        -0.07294085160541758,
                        0.006636095230302063,
                        0.023525932362404807,
                        0.04399917660043736,
                        0.026840088672613165,
                        -0.1142280717212218,
                        0.023531434813614555,
                        0.02003297783532466,
                        0.017573449331564753,
                        0.004965767599917706,
                        0.03461863778542637,
                        -0.0734757614419441,
                        -0.0814863408353689,
                        -0.00295830658261057,
                        0.06532314202292384,
                        -0.026811338643457416,
                        0.035740042591986,
                        -0.03616975339802432,
                        -0.03829007451228718,
                        -0.04201074861206015,
                        -0.04042058346121263,
                        0.0062590164210142305,
                        0.020240599539531848,
                        -0.035981585815487854
                    ],
                    "bias": 1.8163901851716833
                },
                {
                    "weights": [
                        -0.04371712045826119,
                        0.03290185932464211,
                        -0.11572298715966062,
                        -0.014434080172771362,
                        0.003508745479258311,
                        -0.03320313784549024,
                        -0.024659251482652137,
                        -0.05420240262536328,
                        -0.005225841049959295,
                        0.04619050348348027,
                        0.05746756805664487,
                        0.001815329129679254,
                        -0.026542635600516357,
                        0.019589966675469275,
                        0.025077689282574738,
                        0.0034375123792195613,
                        0.015397955810556672,
                        -0.08561100296898723,
                        0.02203243486644405,
                        0.03192417662705268,
                        -0.018444466196929524,
                        0.04105110619018325,
                        -0.07743432484658248,
                        0.05574341538479369,
                        0.002505061119733121,
                        0.07142965333601017,
                        0.011098665869821679,
                        0.0475170399695434,
                        0.12786869269403048,
                        0.0268035407009346,
                        0.005559639732754053,
                        0.09063206261120048,
                        -0.045098447315964414,
                        0.02307930491463249,
                        -0.07557468420817316,
                        0.006348110755055433,
                        -0.0324414259123938,
                        -0.06034693997609417,
                        -0.17942635943737384,
                        -0.11685140411381832,
                        0.00696642401060847,
                        0.028735330604500935,
                        -0.024865798772093488,
                        -0.08368803455193799,
                        0.04120964784502932,
                        -0.15389181274706798,
                        -0.03101029291822342,
                        -0.004101496972135642,
                        -0.0163243225769383,
                        0.008727480031271901,
                        -0.0026954010701697537,
                        0.03926678270540219,
                        0.028731433990140425,
                        0.0010778210702461447,
                        -0.014049675469746219,
                        0.08652769153816912,
                        -0.006776570301582661,
                        -0.06642097960302737,
                        -0.07909554176016215,
                        0.04556819064059154,
                        0.005327697137242463,
                        0.05771245085125984,
                        -0.148214983314888,
                        -0.011112270062380355,
                        -0.29844114639928915,
                        -0.04550333129925925,
                        -0.053106355512730685,
                        -0.21913618305413202,
                        -0.1444266477212861,
                        0.03798169413685878,
                        -0.1561153013990819,
                        -0.4636752218171075,
                        -0.13646909811016947,
                        -0.27880493428276676,
                        0.13508757485154338,
                        -0.16655474275391968,
                        -0.0009453442530105586,
                        -0.02302669950589971,
                        -0.00040881706708402005,
                        -0.037441758561299714,
                        -0.0001952132887924479,
                        -0.06807441625990251,
                        0.09829014660871656,
                        0.014067059583798785,
                        -0.04185677551761955,
                        -0.029761336456686445,
                        -0.09507592417757903,
                        0.006922588582456092,
                        -0.01598619637461721,
                        0.01538895157092888,
                        -0.04199524584619318,
                        -0.14484996707191947,
                        0.16515946737960055,
                        -0.10684561643154411,
                        -0.21125867694353737,
                        -0.203823899905348,
                        -0.35547779685347564,
                        -0.1303123305391858,
                        -0.16315615423808094,
                        -0.08347729507521814,
                        -0.3991533877653982,
                        0.11219837006029265,
                        0.042021743622665565,
                        0.07056237140988789,
                        0.05295061524992663,
                        -0.05959563826150587,
                        0.23301754906975233,
                        0.07698564229186346,
                        0.10116686511186744,
                        -0.03491715419070936,
                        0.024903776306960227,
                        0.028332299516147436,
                        0.028712741899060385,
                        0.053565187817797906,
                        -0.09101887440186852,
                        -0.03217678502815707,
                        -0.018839480454390226,
                        -0.19559543689251946,
                        0.020838080507967843,
                        -0.0037288462255367846,
                        -0.028337115984658653,
                        -0.02865138519878263,
                        -0.07887366366050924,
                        -0.014281439596439053,
                        0.04626244744077892,
                        -0.1534085883301356,
                        -0.052110622392842865,
                        -0.04182115146632788,
                        -0.0796539910487017,
                        -0.05970299482781207,
                        0.010169126184762397,
                        -0.01822539635778959,
                        0.024737786815858382,
                        -0.15154596311945695,
                        -0.2813895924102479,
                        0.05163593549720114,
                        0.04631985250193658,
                        0.03333837795896294,
                        0.033653497685916474,
                        -0.014193765098566806,
                        -0.033048279101841035,
                        -0.02100904544197277,
                        0.02349637252623634,
                        0.11070485198179497,
                        0.14983642620607213,
                        -0.2096148963948214,
                        -0.19252423413037534,
                        -0.05788226592327016,
                        -0.046512551633987355,
                        -0.2008063732312595,
                        -0.009520028692288905,
                        -0.0007496324396037413,
                        -0.030429525648172518,
                        -0.12397067945828275,
                        -0.060574774245194155,
                        -0.1855310095348473,
                        -0.030101058149717412,
                        -0.08310245015023562,
                        0.05397622937661811,
                        -0.13502092564934629,
                        -0.08510857257001708,
                        0.06973790639331758,
                        0.13249979710834128,
                        0.1448833728397409,
                        -0.10569528308124287,
                        -0.007291869084628059,
                        -0.060392979740831805,
                        -0.020485035628253007,
                        -0.047019440105194384,
                        0.029600360074767545,
                        0.015916634567423243,
                        -0.009881129403791794,
                        0.10339825520557547,
                        0.04278255740032517,
                        -0.2503173355861138,
                        -0.14894965294548224,
                        -0.06882365796576588,
                        -0.12950809824887896,
                        -0.10113264073193522,
                        -0.06899204370392932,
                        -0.07053284088306694,
                        -0.12439076230060829,
                        -0.07830521560407647,
                        -0.12665152608627797,
                        -0.07105020912731136,
                        0.019635757108094908,
                        -0.06251270005065136,
                        0.037780806374499605,
                        0.0831010136516272,
                        -0.03301624162496008,
                        -0.03223754666295865,
                        0.027180760593530435,
                        -0.06773116705941322,
                        -0.0016108134496135708,
                        0.026285944441038194,
                        0.012441149830803511,
                        0.005444046337775174,
                        0.04671232122319695,
                        0.07686174233847595,
                        0.13352122970678162,
                        0.20051594047487697,
                        -0.014548820946922527,
                        -0.09150891998212002,
                        -0.11982867704406747,
                        -0.02750080563387716,
                        0.04493437121907371,
                        0.07936665516472081,
                        -0.12318749160618765,
                        -0.046910854537834376,
                        0.09622293864284494,
                        -0.13398929044862587,
                        -0.084794091398099,
                        -0.018631177678442593,
                        -0.05651994423899057,
                        0.013143878957483236,
                        -0.02657624798845074,
                        -0.07140598313828679,
                        -0.052700831196942924,
                        -0.05568022783284322,
                        0.04577405670441676,
                        -0.003698364941414763,
                        -0.0009092064726384846,
                        0.007592829745773196,
                        0.09982884306016122,
                        -0.05138219308149758,
                        0.028414366368549306,
                        0.10238551375160135,
                        -0.006880313094034967,
                        0.06811160307984332,
                        -0.043688614986316966,
                        -0.1361397285510881,
                        -0.015771270853770617,
                        -0.3429550413058689,
                        0.09885133206293951,
                        0.037947344639336605,
                        0.05923195114758793,
                        -0.1243448614936294,
                        -0.019469042680486777,
                        -0.12891869387803123,
                        0.025229835816228532,
                        -0.0790684058438702,
                        -0.06319371320784792,
                        -0.015435898462796978,
                        0.03704366538997146,
                        0.10250003529880648,
                        0.0514911124466912,
                        0.12638846530851855,
                        0.09318268864777829,
                        -0.4052150476105987,
                        -0.08881390224646042,
                        -0.013741743155742881,
                        0.02633017449952117,
                        -0.013603389396838417,
                        0.00405728004347959,
                        -0.007844321400932296,
                        0.12392153621538574,
                        -0.05164786210949044,
                        -0.12040041318433164,
                        -0.24005416895971735,
                        0.01782783270871837,
                        -0.018719615798791688,
                        -0.21500005736162828,
                        0.01903438200731084,
                        -0.06991471381545407,
                        0.04639779893596094,
                        -0.1433284474992035,
                        0.022076795897356404,
                        -0.19478133176789408,
                        0.046688143525914494,
                        0.08241960679611744,
                        0.018707141504467572,
                        -0.12071235959201528,
                        0.031573832230091484,
                        0.005578149952643026,
                        0.22498471554233698,
                        0.012593308186054742,
                        -0.3412178587903428,
                        -0.12336425877392226,
                        0.015903754405412345,
                        0.04137194053905302,
                        -0.030638294172902304,
                        0.025111533261483927,
                        -0.07242706674744771,
                        -0.016810137273621517,
                        0.2281909179760998,
                        0.31513849288486795,
                        0.03365271661195516,
                        -0.26585651651875786,
                        0.16654361118157318,
                        -0.021146612347041568,
                        -0.03601270941879757,
                        0.27573774697910003,
                        -0.0984624793787742,
                        -0.08645290017159676,
                        -0.18339975216345855,
                        -0.2937643476974071,
                        0.0429346450948091,
                        -0.03102031057144523,
                        -0.052712451258625725,
                        0.02346833521213732,
                        -0.10564164256196198,
                        -0.12666386558272943,
                        -0.049251521239951725,
                        -0.36870320384358046,
                        -0.06355459210549973,
                        -0.0324126302890978,
                        -0.013415965940073608,
                        -0.006709661864690582,
                        -0.028616995450181468,
                        -0.013550807393668153,
                        0.07590569710123705,
                        -0.00599879379655145,
                        0.15898802855455296,
                        0.3001818070354194,
                        0.09135725431547662,
                        -0.09645108452263085,
                        -0.26327466458737014,
                        0.019468635948997105,
                        -0.12036088645608611,
                        -0.4786249760859416,
                        -0.23012625413176757,
                        -0.25185471609533244,
                        -0.13206427988537958,
                        -0.14911564765896362,
                        -0.05921403240355483,
                        -0.009532205063503345,
                        0.05306462858589314,
                        -0.05006052856677033,
                        -0.25890113342523796,
                        -0.09661844133250601,
                        -0.2269054945686811,
                        -0.06535396485890696,
                        -0.22493713961052664,
                        0.036489280617728354,
                        -0.060994347588306796,
                        -0.06892663407063913,
                        0.05855496116454352,
                        0.06613802945985119,
                        -0.04821666151616551,
                        0.03276663896165406,
                        0.03359852474015357,
                        0.03987779638060582,
                        -0.6005606630936912,
                        -0.2768306516670597,
                        -0.12867541156515908,
                        -0.42539841097635134,
                        -0.314895772243619,
                        -0.6255090237138938,
                        0.13751217698203863,
                        0.3938430508349409,
                        0.03349154161153228,
                        -0.0564140683197003,
                        -0.08094067374866935,
                        -0.04345698786883088,
                        -0.024849668218309463,
                        -0.17188104969684492,
                        -0.020754169405248792,
                        0.079937109786963,
                        -0.09195252154474846,
                        -0.3143023949540941,
                        -0.32220082630022057,
                        0.35413102346147535,
                        0.1628746676934934,
                        0.07522701663566579,
                        -0.02231771683457416,
                        0.04274445777518652,
                        -0.01462588006348478,
                        0.0018970914449776962,
                        -0.4243861715026195,
                        -0.5983375594770499,
                        -0.07811671789369284,
                        -0.5203415364868802,
                        -0.020388832519659474,
                        -0.12203711233790991,
                        -0.33583288753510804,
                        0.13315226846410969,
                        0.3940822565582352,
                        0.40809679548371813,
                        0.3567612081684716,
                        -0.06921929731584073,
                        -0.03466786087922436,
                        0.03301856552849864,
                        -0.09211231593222848,
                        -0.044082574195310226,
                        -0.16939181340493373,
                        -0.025623875153853313,
                        -0.23760079582319343,
                        -0.39678262709366674,
                        -0.015867307636401668,
                        0.3407461051649708,
                        0.0923686136351579,
                        -0.006504841670203737,
                        -0.04549810419380101,
                        0.04328048144058106,
                        -0.03617067294075817,
                        0.0907725738917404,
                        -0.23532345597389137,
                        -0.2276141426693285,
                        -0.23543212776451264,
                        -0.20342976812890667,
                        -0.02910786550239741,
                        -0.16793452876015247,
                        -0.2743763098360074,
                        0.08420229241709198,
                        0.2461436810512877,
                        0.182027953792888,
                        -0.10985183433056181,
                        -0.08332335235466223,
                        -0.16557045334242487,
                        0.13536254235296402,
                        -0.12970331363202342,
                        0.07034947375477416,
                        0.07594883594174687,
                        -0.08691028895013145,
                        -0.23092312721733343,
                        -0.10403609630522198,
                        -0.29461022538255965,
                        0.060104469915031544,
                        0.13742982246448715,
                        -0.11508670375326387,
                        -0.010389965290255071,
                        -0.027495545593779935,
                        0.05058045730823772,
                        0.20201969022130623,
                        0.07351532044347119,
                        -0.01960237342171789,
                        0.030363167180740305,
                        -0.13917269729365264,
                        -0.0412111630638605,
                        -0.02663322661965795,
                        -0.024412590443781253,
                        0.0986268453705103,
                        0.20867675194389765,
                        0.013639792391695486,
                        0.08306066948354457,
                        0.05881993602251814,
                        0.04264430284049476,
                        -0.024592235147912225,
                        0.1623279250548692,
                        -0.05855199701815054,
                        -0.13689567819181583,
                        -0.08726909505575821,
                        -0.12638314738609108,
                        -0.2381413048285611,
                        0.11559155692806036,
                        0.05941040518676988,
                        0.20351670778998715,
                        -0.008540100304948022,
                        0.050127546031676,
                        -0.006820396938935876,
                        0.03068042601160928,
                        0.29377936142936145,
                        0.2520443347677344,
                        0.12355340041583968,
                        0.08990941861372054,
                        -0.14470187505906068,
                        -0.32368329727190287,
                        -0.17656067213732862,
                        -0.17142700146226852,
                        0.10288579047871449,
                        0.07414197283715564,
                        -0.0416072277057351,
                        0.081692730781601,
                        -0.07673764792270862,
                        0.1760295046113704,
                        0.1790423063919368,
                        0.06716570096231321,
                        -0.20674239946061282,
                        -0.057008680479839896,
                        -0.1543328769828645,
                        -0.07734055010913372,
                        -0.2408936349955485,
                        -0.20229624482845882,
                        -0.07311828741446043,
                        -0.024623484095849194,
                        0.15351084720613242,
                        0.07673008948924175,
                        0.02614645089981059,
                        0.06399184074696962,
                        -0.16300984469609847,
                        -0.039887487907155635,
                        -0.11207386055358495,
                        0.04655721548175907,
                        -0.12734945471848233,
                        -0.07852925927101455,
                        -0.1516060508078063,
                        -0.03206261441182666,
                        -0.13830611423490174,
                        0.23462580396808158,
                        -0.016243207006053376,
                        -0.020066890907796932,
                        0.18842646398851184,
                        -0.005271121657794192,
                        0.13038351471378656,
                        -0.29557484704511955,
                        -0.21600402172156957,
                        -0.06800313597931852,
                        -0.1993466907749216,
                        -0.06673845906964351,
                        -0.18887901137839191,
                        0.22135692727447584,
                        -0.12273639036333113,
                        -0.20630245657450616,
                        0.09742889931875583,
                        -0.054406688942709544,
                        -0.01817155690489162,
                        0.03483252764990474,
                        -0.3400216060010437,
                        0.04516952111070238,
                        -0.1441476125023621,
                        0.03268808627435201,
                        -0.1825543722842016,
                        -0.19898598847502427,
                        -0.07141630722497408,
                        -0.13793823061648997,
                        0.12124833501780523,
                        0.1675816985479569,
                        0.12836632977751458,
                        -0.0567780418691687,
                        -0.0314923648369399,
                        -0.02594719278083154,
                        0.08353776862720345,
                        -0.0803285545301994,
                        -0.004067304138901365,
                        -0.16100531570979915,
                        -0.03782067613787344,
                        -0.24782853117820822,
                        -0.005414189995866031,
                        -0.058895833449233846,
                        -0.19202680445541045,
                        0.2210033542478643,
                        0.3748380640671483,
                        0.07696719864773564,
                        0.08741654918876775,
                        -0.2309315625427617,
                        -0.20121668257919437,
                        -0.09540903346414169,
                        -0.17845509691342365,
                        0.11210396982339703,
                        -0.08695270934538286,
                        -0.1571648308533856,
                        -0.15134522089811903,
                        -0.18982174470451604,
                        -0.04707703870777256,
                        0.08730687421684775,
                        0.12083392187434502,
                        -0.03291312059141281,
                        -0.06800312782093831,
                        -0.032066398169659865,
                        -0.05243761312830252,
                        0.01540444638776176,
                        -0.15275027624459814,
                        0.13534663321593352,
                        -0.11096137780242098,
                        -0.21952114026336075,
                        0.021455095134408495,
                        -0.13699868117864852,
                        0.015720983586144866,
                        0.13468479783422427,
                        0.09803186008013126,
                        0.053788997397973916,
                        -0.2434826372946459,
                        -0.11865179599312482,
                        -0.15076453424880903,
                        0.06419449459741733,
                        0.03206454025329672,
                        -0.033967432844194415,
                        0.06811245015360051,
                        0.04117706624721104,
                        -0.07877053156196605,
                        -0.037760816280631056,
                        -0.10222935305903304,
                        0.027667291544359086,
                        0.019420882102778418,
                        0.022552734290321598,
                        0.025531441441180264,
                        -0.029857147713218634,
                        -0.10589055538802754,
                        -0.12806878423460025,
                        -0.09970358695454334,
                        -0.010987438423554489,
                        -0.23526856288920522,
                        -0.218428702263766,
                        0.017610808589732817,
                        0.013938702198432202,
                        -0.138869199781813,
                        -0.041737218805866595,
                        -0.04837758971071061,
                        -0.042406627952129926,
                        0.09923481014166341,
                        0.19376859248603454,
                        -0.030727287891884728,
                        -0.0383345912143752,
                        0.010866407046745359,
                        -0.008427002260330874,
                        -0.10870343989858382,
                        -0.08872343204722358,
                        0.05892431022698641,
                        -0.0038744555778033613,
                        -0.11009283168273651,
                        0.16759696126485962,
                        0.10606335079354157,
                        0.0018835564477085276,
                        -0.09147935308587636,
                        0.02196406059313475,
                        -0.06493191432694524,
                        -0.12772657895067374,
                        0.03747536729259233,
                        -0.04693329059338132,
                        -0.03338842206971114,
                        -0.15858519603731328,
                        -0.12071634840744801,
                        -0.0023771736904519597,
                        0.03729328073096301,
                        0.05862392482546169,
                        0.03342356090778699,
                        0.04066752132031572,
                        -0.02653465823931794,
                        0.12375019518254292,
                        0.006021401729890429,
                        -0.16606617028420145,
                        -0.06193510785070562,
                        -0.023621163603080857,
                        0.15343404723503415,
                        -0.007780889360062267,
                        0.060051926435236276,
                        -0.06966221623688301,
                        -0.1157312807758739,
                        0.17316045481506895,
                        -0.10107944830535522,
                        -0.06283744423047925,
                        -0.0723245818757879,
                        0.08629993262199673,
                        0.08898312640035103,
                        0.0585472392082928,
                        -0.09539414351679536,
                        -0.08556477315321391,
                        -0.1169096968877637,
                        0.04055236815479663,
                        -0.12343464773386154,
                        -0.12622576025891552,
                        0.14030638134290468,
                        0.07198774448510163,
                        0.026200334179942435,
                        0.0274540298963407,
                        -0.016885266454646906,
                        0.003336707144099458,
                        -0.009757332027058958,
                        0.13989374012241645,
                        0.28258202255856574,
                        0.24263721060649435,
                        -0.11123735080738031,
                        -0.017685975423313818,
                        0.0802162893722609,
                        0.02736076175924589,
                        -0.034353476050864896,
                        0.0031171762196592246,
                        -0.18024696276864027,
                        -0.3275354407102142,
                        -0.15988651019689276,
                        0.07758599159966863,
                        0.207208938142388,
                        -0.24188985038998884,
                        -0.02438787771700461,
                        0.11260448337706452,
                        -0.3426762295089966,
                        0.03619028435132817,
                        -0.07175937875420153,
                        0.0925391877630653,
                        0.30408135414572424,
                        -0.07926903432691493,
                        0.08786893049008226,
                        -0.033735089128373225,
                        0.050720000620587916,
                        -0.0009598441261047081,
                        -0.04085165257314811,
                        0.07143445917711773,
                        0.10050422787342052,
                        0.08438687183111576,
                        0.04728198795189736,
                        0.030985027843542814,
                        0.12348617133548451,
                        -0.2073231622512191,
                        -0.1309473838968561,
                        0.05806273805530014,
                        -0.2268406138691048,
                        -0.16637387543751006,
                        -0.15237601966092848,
                        0.04828655738313049,
                        0.17672094300834237,
                        -0.03867158570739933,
                        0.24396129717073903,
                        0.2581267519556681,
                        0.11699187988030904,
                        -0.08588706122076221,
                        -0.021119878076490326,
                        0.06579106663663255,
                        0.10266689711136684,
                        0.021028288945786025,
                        0.017665283425593526,
                        -0.010731801389616113,
                        -0.0817583258820689,
                        -0.054421892083414046,
                        0.0682008266554445,
                        -0.04555621353124951,
                        0.04574482994029098,
                        0.12487447812049274,
                        0.02885046344888779,
                        -0.026885984984678767,
                        0.0004184590297511228,
                        -0.0384485825549804,
                        0.17279412519042273,
                        -0.10593740026650166,
                        -0.12518812949521974,
                        0.14103297064231587,
                        0.007211632392656956,
                        0.07576647369620414,
                        -0.048069202860756485,
                        0.02440815557177209,
                        0.03799184209186522,
                        -0.0077611096365555144,
                        -0.015191342704706233,
                        -0.0677940389633874,
                        0.06541187150382925,
                        -0.017249182500708213,
                        0.0022778031166802186,
                        0.031938795921586285,
                        0.05423414128146439,
                        -0.013271497074923888,
                        0.041485874100333456,
                        -0.006182890104220978,
                        0.051412017427875004,
                        0.022702079642621636,
                        0.03256039057676223,
                        0.020225371851993842,
                        0.05483180098731306,
                        0.0007069507946623349,
                        -0.026002003751971613,
                        0.050288657506397993,
                        -0.004398179645143749,
                        0.002961543904678901,
                        -0.08166810018490255,
                        0.08558553372608807,
                        -0.10045924525637741,
                        0.019809276790951104,
                        0.054092055311729066,
                        0.13090975638547042,
                        -0.16258337025533048,
                        -0.08581133521590388,
                        -0.008736578211428533,
                        -0.043541698271339274,
                        0.06341859826277206,
                        0.09348168700455398,
                        0.14913520857092816,
                        -0.051242786029627736,
                        0.04580435847314516,
                        -0.03782921314109459,
                        -0.029239895848469248,
                        -0.031225183542695056,
                        0.026868316820782275,
                        -0.03610977961866084,
                        -0.06985016341461757,
                        -0.035235005570251936,
                        0.027840579221027666,
                        0.0036426860310065394,
                        0.07722928112862824,
                        -0.10817838820836176,
                        0.02455401288858552,
                        0.007299631862005649,
                        -0.06251203380996717,
                        0.010574433452678816,
                        0.060895466480465295,
                        -0.007018249939627579,
                        -0.021500926123481697,
                        -0.024111458345908648,
                        -0.01420985151892893,
                        0.056957764582672585,
                        -0.0330473762154715,
                        -0.028687496787333955,
                        0.07803943320297106,
                        0.010663434710294777,
                        0.05907119249605738,
                        0.014150225644182774,
                        -0.043677236037361795
                    ],
                    "bias": -1.0793574924518738
                },
                {
                    "weights": [
                        -0.06166633084330524,
                        0.05583914978566295,
                        -0.020185042318980193,
                        -0.0393266247435559,
                        -0.06942498819307241,
                        0.08638672947796833,
                        -0.03141316339208053,
                        0.05718365385813213,
                        0.13105169150702295,
                        0.056899702308205506,
                        -0.002145840939814595,
                        -0.0029721498441854155,
                        0.025816169451085134,
                        0.04574982875367378,
                        0.04664159071924087,
                        0.02978392029647776,
                        -0.00017502099547201015,
                        0.03525802817814209,
                        0.058592235167263744,
                        -0.012176356880491816,
                        -0.010464106032627285,
                        0.021423444569187333,
                        0.030009437908287334,
                        0.0875965661734792,
                        -0.011789330176513485,
                        -0.032444337642888926,
                        0.0007549436460094234,
                        0.024224278547163944,
                        0.03751522220321053,
                        -0.03290775692467392,
                        0.003152579659092208,
                        -0.025866588894004745,
                        -0.03173174356283107,
                        -0.025646229921035175,
                        0.07345029373505652,
                        -0.0912795901226806,
                        -0.024920644780928602,
                        0.0384525031760011,
                        0.03806162927074389,
                        0.10440384913405412,
                        0.03567690497575393,
                        0.03727354713624105,
                        0.045083054717283584,
                        0.005855780262956747,
                        0.1356832214263341,
                        0.04356158933213431,
                        -0.03790625794000483,
                        -0.06450012765547485,
                        0.02323506354954944,
                        0.01268195941261158,
                        -0.0790805906324551,
                        -0.024267004356049685,
                        -0.007498116827619222,
                        0.04750996201765536,
                        -0.05633384460932497,
                        0.034746677340464605,
                        -0.05229835101307128,
                        -0.004770887027337416,
                        -0.007166695568939892,
                        0.05046057247206009,
                        0.08955166798174935,
                        -0.03929535725962042,
                        -0.0650599738138732,
                        -0.01897301035044645,
                        -0.01349705690813282,
                        -0.09695916020944234,
                        -0.034194611283300605,
                        -0.22217672626334373,
                        -0.38495540376970383,
                        -0.43299474248150494,
                        -0.21473343633068315,
                        0.12476874741169616,
                        -0.08690485393409017,
                        -0.13273240491999647,
                        -0.2470603241504948,
                        0.19010005405473562,
                        -0.11980766986079272,
                        -0.05183729757321928,
                        0.014291345538525676,
                        0.010022480511590695,
                        -0.014071111033286043,
                        0.06805717335364737,
                        0.015160201827478698,
                        0.0480691272138015,
                        0.10236142265904737,
                        -0.009008263953166165,
                        0.0753901248566318,
                        0.00818169829273883,
                        -0.11676442150697934,
                        0.1288222007760724,
                        -0.025706291610775842,
                        -0.07751775979160484,
                        -0.1453683772539915,
                        -0.5015663658771755,
                        -0.6854120410501932,
                        -0.05283872991258269,
                        -0.12849051726359234,
                        -0.394097436238787,
                        -0.10212215536631547,
                        -0.2419454602895902,
                        -0.12677434523707495,
                        -0.15583101493904825,
                        -0.14706623070305694,
                        -0.08250263659949368,
                        0.22707373010428492,
                        0.022243211238772605,
                        -0.08629804127831703,
                        -0.015161371897501611,
                        0.07169581007315814,
                        -0.02202371803956545,
                        0.06671015141609295,
                        0.020618399408596843,
                        0.10298720640241259,
                        -0.0006240615690861096,
                        -0.04543283977061411,
                        0.0778411226771176,
                        0.002133652650743494,
                        -0.039428364652798725,
                        -0.20381379570848104,
                        -0.1476257797027225,
                        0.17090535574004848,
                        -0.33197372436174194,
                        -0.37771469619020576,
                        -0.08880733075240921,
                        -0.3148436750282836,
                        0.008812597204956378,
                        0.04465569542643584,
                        0.0015620336301539416,
                        0.027332525753514997,
                        0.00764518240120618,
                        -0.0662860796531472,
                        0.16685170980865702,
                        0.23864155652197416,
                        0.26534923465208576,
                        0.12484310392314141,
                        0.39790192185964357,
                        0.04097155073295528,
                        -0.0031111075464949367,
                        0.021315142618476533,
                        -0.06863951577658384,
                        0.011508539728328245,
                        0.08180703990022294,
                        -0.10299395323672639,
                        -0.06577307563491283,
                        -0.14178700967707664,
                        -0.22067363328452821,
                        0.17427510570013455,
                        -0.28439008488137046,
                        0.04977389961080504,
                        -0.05674491499444993,
                        -0.11308282943460299,
                        -0.06024988706605803,
                        -0.10997290622320549,
                        0.007850395999779351,
                        0.025687949623127513,
                        0.18390616576947263,
                        -0.057212463730873714,
                        0.013137066406312903,
                        0.11299964509576504,
                        -0.013684708856946576,
                        0.05694662184043039,
                        0.034787616020948334,
                        -0.08187343603518486,
                        -0.12023944910488293,
                        0.13037821603584834,
                        -0.0006151705925587907,
                        -0.012274668030891682,
                        -0.09626146004425304,
                        -0.0036482167838039854,
                        0.08045626266836349,
                        0.111711828863095,
                        0.0021950431125697914,
                        -0.11099300853471467,
                        0.05037076302186531,
                        0.12785741827182523,
                        -0.1072881596272221,
                        0.07539324636024,
                        -0.21557906241008656,
                        0.009461475648130702,
                        -0.06614051685703984,
                        -0.03440672199761958,
                        0.14400460455794897,
                        -0.17229763082948238,
                        -0.03476189886790202,
                        0.14608464486839137,
                        -0.08441807921113245,
                        0.07231841224272881,
                        -0.012504961625888673,
                        0.05904598703638961,
                        0.02249477201347116,
                        -0.046650398158086935,
                        -0.07616280485604164,
                        0.09315688577541348,
                        -0.07271844224738826,
                        0.0937390050340588,
                        -0.04143298469889024,
                        0.00548832438665926,
                        0.0037313345945391477,
                        -0.1547031050912277,
                        -0.24890673523559367,
                        -0.4313310990805382,
                        -0.07107464469289923,
                        -0.38735897988042367,
                        0.12878935502226901,
                        -0.20883812504262778,
                        0.039975780279171425,
                        -0.10491435099526367,
                        0.06008003435030772,
                        -0.041530754333157595,
                        -0.04897620538604264,
                        0.17998898989468604,
                        0.08512752732353196,
                        -0.02794354790043982,
                        0.10316195262576851,
                        -0.017369479028906332,
                        -0.0036955280136291378,
                        0.029609548343848602,
                        -0.06316064288364344,
                        -0.09305978118713473,
                        0.14499357050376813,
                        0.03922979917825519,
                        -0.2206316952734018,
                        0.023406970353280536,
                        0.010886116424063749,
                        0.04490588437312097,
                        0.08743784117945969,
                        -0.07854692141132744,
                        -0.2542046203414588,
                        -0.4376583544073103,
                        0.19128613726595822,
                        -0.24989451149255915,
                        -0.022862851208389146,
                        -0.06543647159207795,
                        -0.0719928374756807,
                        -0.21787768126691906,
                        -0.08468908977092,
                        -0.035302041311321475,
                        0.08577664803253117,
                        -0.13995863336687142,
                        0.004585570197817052,
                        0.1226175570559425,
                        0.020662542885003084,
                        0.06182670492403907,
                        0.023643785086915652,
                        0.06072516932819019,
                        -0.03227507433493555,
                        -0.05367814663589887,
                        -0.06210695988299761,
                        -0.02050016354177691,
                        0.1675352563516457,
                        -0.03803038335767215,
                        0.09483851038379885,
                        0.04020705114632998,
                        -0.03131485247358243,
                        -0.043472831177070397,
                        -0.12404030135540217,
                        -0.36665464990359553,
                        -0.18195021827065994,
                        0.001404742597414387,
                        0.0037780072808837944,
                        0.18662198760042856,
                        0.22732739061324314,
                        0.0278791067653276,
                        -0.023285667272627975,
                        0.002514091541100932,
                        0.12175642140109189,
                        -0.11279453766824192,
                        -0.04781372649902851,
                        0.06736987233134466,
                        -0.15602706626091897,
                        -0.06634386593229621,
                        -0.05127653504805369,
                        -0.007811617344085185,
                        -0.056581697924608765,
                        -0.07738138399651405,
                        -0.035968033443560386,
                        0.10912354264738419,
                        0.10381219632245645,
                        -0.012572281366155855,
                        -0.009267098840317126,
                        0.011269271513689444,
                        -0.004236562101156136,
                        0.00016837787821305197,
                        -0.06624751173193921,
                        -0.3725478066043095,
                        -0.3082488478956382,
                        0.07428644157149847,
                        0.16565664960812992,
                        0.08667199466865302,
                        0.08724700186765186,
                        0.07171888377953799,
                        0.0008019278605706133,
                        0.02760392159628325,
                        -0.08242100156997419,
                        -0.0856531248023156,
                        -0.05619237984109777,
                        -0.11973804544496358,
                        -0.028983506496358006,
                        -0.10843401016002367,
                        -0.05090445011982747,
                        0.003675786829738768,
                        -0.1304467523316079,
                        -0.02732160987768551,
                        -0.06916752252586376,
                        -0.12680009723609956,
                        0.045709470807062454,
                        -0.15720297445785286,
                        0.032416524930256374,
                        0.038807374078951774,
                        -0.037576336024759086,
                        -0.1255061487056712,
                        -0.13799615337721752,
                        -0.17555556558765983,
                        0.04239313284522306,
                        0.06508869205689286,
                        0.11265007886912458,
                        0.11787106485801116,
                        0.0358427048469132,
                        0.048675931737284454,
                        0.20803909967408019,
                        -0.014358728987934015,
                        0.04847619916938775,
                        0.15374175252660835,
                        -0.028971685808510454,
                        -0.015428110321333798,
                        0.11730259094551887,
                        0.013146142889322894,
                        0.019311867993584055,
                        0.01664358075439697,
                        -0.0050723484990396585,
                        0.053718292643889054,
                        -0.026320152465777506,
                        -0.0645927246916645,
                        -0.14163689917090674,
                        0.01152639959030797,
                        -0.03351510777238882,
                        -0.07156033760640824,
                        -0.003461015052716925,
                        0.06882285015550128,
                        -0.14670394300735393,
                        0.150166203894399,
                        0.061794501320262187,
                        0.14071016440655168,
                        0.10538631310629122,
                        0.1240105672693916,
                        0.24494314021635102,
                        0.181312804851417,
                        0.3368883722036984,
                        -0.17526296641521114,
                        0.062309298622463725,
                        -0.08108807993406784,
                        0.17168714960893194,
                        -0.055895780327827695,
                        0.23669371402515618,
                        -0.037287020356344465,
                        0.05571230912336992,
                        0.025566581226116547,
                        -0.021480134573173562,
                        -0.07068627376089445,
                        0.004395896082839161,
                        0.18080285841674826,
                        -0.12498486592090821,
                        -0.2162130150897725,
                        0.012506069665345782,
                        -0.013836605843688394,
                        -0.07851329219693134,
                        0.09817096099223864,
                        -0.04530810514138511,
                        0.39678768049523083,
                        0.288674810510403,
                        0.04369380204795193,
                        0.24487617401052839,
                        0.025797939443331558,
                        -0.0358807399608491,
                        0.035173159501388225,
                        -0.0774112235301181,
                        -0.2600942951679718,
                        -0.09434730767514896,
                        -0.3279843058974815,
                        -0.09479205489190677,
                        0.10264101481996996,
                        -0.0028470430795137554,
                        -0.0507268703038949,
                        0.15863106631906862,
                        0.15657540964429062,
                        0.009822530783861267,
                        0.10083370844028329,
                        -0.023958885051936087,
                        -0.15455557185021762,
                        -0.14144060046495044,
                        -0.4896732341938397,
                        -0.2781926285934538,
                        -0.02227078421880642,
                        -0.03831310603923425,
                        0.029532328545651815,
                        -0.14155213563066388,
                        0.15022033903363052,
                        -0.0275057255815056,
                        0.06094895788088442,
                        0.0067562936315946846,
                        -0.021377435852142697,
                        0.0019746760357099986,
                        -0.18009735526707968,
                        0.09242885444560453,
                        -0.18023576483586948,
                        -0.33972438041290387,
                        -0.5707614731275948,
                        -0.2635007898395297,
                        -0.4322428158132258,
                        -0.04613122442157934,
                        -0.09497084533922011,
                        -0.06329202364574986,
                        0.0446270878236062,
                        0.031781134206656625,
                        0.10023595555860709,
                        -0.03333729339214483,
                        0.20203848770104343,
                        -0.19743878134275009,
                        -0.4713987620267496,
                        0.029011171221437353,
                        -0.03606615073247122,
                        0.0248004851193052,
                        0.11618642047121566,
                        -0.3984420691184017,
                        -0.10483816000566992,
                        0.01913764682636582,
                        -0.09464025600906148,
                        0.05307898413191423,
                        0.07988753204124457,
                        0.05903446379046088,
                        0.13544457223583262,
                        0.06217559792325444,
                        -0.14131225182975254,
                        -0.4840675250319221,
                        -0.5116027066199507,
                        -0.2593640119674198,
                        -0.3676063114665769,
                        -0.04423847827720214,
                        -0.08536344399395734,
                        -0.091946798639446,
                        -0.06748989491270882,
                        0.00722432093750184,
                        -0.05920664198275997,
                        0.026975332402944956,
                        -0.1577965270104134,
                        -0.28701076911615864,
                        -0.5645018839443775,
                        -0.09126980707193014,
                        -0.03940280152902967,
                        -0.022198579624037634,
                        -0.08038753644087605,
                        -0.4869103490133505,
                        -0.1634228677885967,
                        -0.08390819227458729,
                        -0.017895543688667852,
                        0.07494569789253411,
                        -0.05018393888592264,
                        -0.09264511902121146,
                        -0.024636168811516715,
                        0.1614743911118088,
                        -0.6095369107677887,
                        -0.7595523244321796,
                        -0.5282489947206284,
                        -0.27982139358196123,
                        -0.34977499896631353,
                        -0.2041927321675805,
                        -0.04769971875314981,
                        -0.07877581842160435,
                        -0.07499702410647893,
                        0.039540890536483464,
                        -0.09537469352315524,
                        -0.059112482758861905,
                        -0.026579406271052347,
                        -0.748633259401347,
                        -0.6469762814372003,
                        -0.38077741920209723,
                        0.06734556380992811,
                        0.008529823406465728,
                        -0.17772942557894378,
                        -0.22553948308809965,
                        -0.07161705592915903,
                        -0.043478690292096334,
                        0.00262986650292029,
                        -0.05039958716466575,
                        -0.07790207778840946,
                        -0.13416994492098336,
                        -0.021190778594979573,
                        -0.29804112203814837,
                        -0.2005417192128343,
                        -0.5834819271599415,
                        -0.452242941170187,
                        -0.10549901883734877,
                        -0.0337954142426811,
                        -0.10793450526406001,
                        0.01931450738965159,
                        -0.07526599812270211,
                        -0.16738108871183177,
                        -0.10065556298337432,
                        -0.019203050177993564,
                        0.0117982017800304,
                        0.044818753040588306,
                        -0.5530827661515082,
                        -0.23521960504473327,
                        -0.011810107261563731,
                        0.0071228779957188265,
                        0.032696419043844085,
                        -0.10376161977256512,
                        -0.3375515483408068,
                        0.04330327204197669,
                        -0.2622737420813185,
                        -0.14468255793140108,
                        -0.022947124998403737,
                        -0.12627041701228375,
                        -0.03295338511117562,
                        -0.22627172807453647,
                        0.014937713996136814,
                        -0.11465180622358384,
                        -0.3653230742542046,
                        -0.3842553928861347,
                        -0.12055715182050057,
                        -0.2663938127596728,
                        -0.12051466650221118,
                        -0.11698672947684036,
                        -0.02173279546753453,
                        -0.2080270934218873,
                        -0.0542296600539972,
                        -0.08475974468114054,
                        -0.15995848307444735,
                        -0.2897690079617305,
                        -0.6311116407227977,
                        -0.3928188896995693,
                        -0.36491957396311286,
                        0.11922120871239127,
                        0.0034248541660634973,
                        -0.04052476738465753,
                        -0.1679849063629566,
                        -0.004429095528909322,
                        0.02122083825643566,
                        -0.044465494797339286,
                        -0.05046517678591239,
                        0.037404382897746155,
                        -0.042743836754137864,
                        -0.0002746271557356587,
                        -0.03444077647669595,
                        0.22601216636686786,
                        -0.2430762732119514,
                        -0.27053389257371113,
                        -0.10899620262643775,
                        -0.13265524291923284,
                        -0.16514171671289674,
                        -0.20765302182813536,
                        -0.005481682544378783,
                        -0.09694671723675002,
                        -0.045403107864635944,
                        -0.19906825361990815,
                        -0.1301387348510411,
                        -0.21044969282137857,
                        -0.6289893218671143,
                        -0.4172023419454877,
                        -0.0007758715013959792,
                        -0.02035061727262695,
                        0.10513966635757607,
                        -0.021157519183047632,
                        -0.3458547457194725,
                        -0.04434254693913096,
                        -0.012972563702424321,
                        0.033878349901536285,
                        0.02346386186916337,
                        -0.07494434655800752,
                        0.0013578084637088828,
                        0.03495152694986884,
                        0.0935149831013138,
                        0.11568325435009483,
                        0.08030644940692894,
                        -0.18459959365343984,
                        -0.03629597909852442,
                        -0.18372319280420574,
                        -0.16427687983095923,
                        -0.09358497478397465,
                        -0.1617034533866773,
                        -0.16665074253694237,
                        -0.005079232232372061,
                        -0.10063620978947355,
                        0.01881796066433141,
                        -0.36532889126991797,
                        -0.30602138396245115,
                        -0.027259870142608052,
                        0.024192040159391623,
                        -0.0720823946916144,
                        -0.0774229467373857,
                        -0.3031483134165871,
                        -0.289967536139102,
                        0.06121583559832648,
                        0.16017615820928652,
                        -0.05609355065086065,
                        -0.06643272824579,
                        -0.005597329272143761,
                        -0.0005739311551793888,
                        0.017566523502232652,
                        0.03792651808357306,
                        0.05355383540559711,
                        -0.0034580673028336137,
                        -0.1485713959995209,
                        0.062244058550698235,
                        -0.19697840122358778,
                        -0.2755643006283811,
                        -0.08452265359644842,
                        -0.17719976636318596,
                        -0.09043176553321385,
                        0.04754054822743139,
                        -0.40634712868169304,
                        -0.5106232724916229,
                        -0.21582359130858156,
